34 12
0 -0.041608113616202196 -0.16932984846638433 0.056357634014618754 -0.5546021253133613 -1.4816865903645267 2.245912652859721 0.0 1.3526545977580935e-17 1.898841253319547e-17 2.1356912925319437e-17 -2.8014856856046665e-32 -9.532058933793384e-17
1 0.04424254704229378 0.2886875449750462 -0.10554639932413526 1.3225765417454154 -0.3100529007080638 1.3723326429497509 0.0 1.55657439092708e-32 -1.898841253319563e-17 8.542765170127758e-17 6.416555344675322e-17 9.532058933793365e-17
2 0.16993087542487822 -0.0761089620172526 -0.6459728574385366 -0.19856160416598492 1.1482323213912788 1.6954833931525075 -0.039637587695913835 -0.13646343070859485 0.030103425776648724 -0.2341774438509764 -0.27723811563153034 0.19042321848736365
3 -0.20643098742092747 0.060040072571438216 -0.09590647923332926 -0.06943127457946925 0.24665084376124569 0.22153776994376959 -0.03712791886259548 -0.040272706541728015 0.0038292506550325696 0.09009517894394875 -0.6124901746282665 0.4972018074175704
4 0.0926579392323201 0.7357276054786525 0.07489963333762219 -0.30735768437457306 -0.11155935464501396 0.03276169307466569 0.0 6.983458973078296e-32 2.778976949447361e-32 5.560981338874226e-32 4.0407808577211704e-32 1.9064117867586752e-16
5 0.09265793923232002 0.7357276054786525 0.07489963333762217 -0.30735768437457306 -0.11155935464501406 0.03276169307466569 0.0 0.0 0.0 0.0 0.0 0.0
6 1.0260840603189254e-16 -8.635485626319363e-17 1.572228662508642e-17 -1.2417361973821623e-16 3.1846784258027115e-17 -3.076691470678234e-17 -0.07927517539182767 -0.2729268614171897 0.060206851553297525 -0.46835488770195294 -0.5544762312630606 0.3808464369747273
7 -1.7762701608551073e-17 2.101880724014298e-17 -9.301885062514571e-18 4.0183150718134817e-17 5.972068728376053e-19 1.474688522488053e-19 0.12726483938514319 -0.0054184222205882066 -0.3674912754646887 0.3305263471388452 -0.7328966872322139 0.9477346087855945
8 -0.3889700502362226 0.03023983150510232 0.4180808475910739 0.003821313643968218 0.43658730187255945 0.5440258967267256 0.002509668833318356 0.0961907241668668 -0.026274175121616193 0.32427262279492536 -0.3352520589967365 0.30677858893020715
10 -2.862216867949689e-17 2.4024263640647657e-17 -1.4933324815865267e-17 3.4479784405729427e-17 2.12382527019429e-17 5.532225064889213e-19 -0.07927517539182767 -0.2729268614171897 0.060206851553297525 -0.46835488770195294 -0.5544762312630606 0.3808464369747273
11 2.829542827454736e-17 -5.814181258633381e-17 3.2018912061500886e-17 -9.20612083027521e-17 -1.3761399032536675e-17 3.375827826788739e-17 0.0 0.0 0.0 0.0 0.0 0.0
12 9.957400015861952e-17 -7.691578190693795e-17 7.022800829146244e-18 -1.5559168715312886e-16 -4.387835051223804e-17 -3.623847093652231e-17 0.1643927582477387 0.03485428432113982 -0.3713205261197214 0.2404311681948963 -0.12040651260394722 0.4505328013680238
13 -8.450204331390188e-17 5.2771490615128597e-17 -1.6913151088435117e-17 9.906978033118923e-17 2.787071765094331e-17 -2.837352350798234e-17 0.12726483938514319 -0.0054184222205882066 -0.3674912754646887 0.3305263471388452 -0.7328966872322139 0.9477346087855945
17 -7.196195921441619e-17 7.706171770016571e-17 1.1272899386760917e-17 1.1560648137076397e-16 -9.558234904247898e-17 5.426534304907998e-17 -0.039637587695913835 -0.13646343070859485 0.030103425776648762 -0.23417744385097647 -0.2772381156315303 0.19042321848736365
19 -4.4021721076244255e-17 3.171068229173266e-17 -9.341141074137291e-18 4.070393188295437e-17 -1.6549116527015404e-17 -1.3662145381832013e-17 -0.039637587695913835 -0.13646343070859485 0.030103425776648762 -0.23417744385097647 -0.2772381156315303 0.19042321848736365
21 4.6220600559048725e-17 -2.999181809468617e-17 2.5668760616591616e-17 -6.329610189553096e-17 -5.156575590006086e-17 9.267479495862922e-18 -0.039637587695913835 -0.13646343070859485 0.030103425776648762 -0.23417744385097647 -0.2772381156315303 0.19042321848736365
31 -0.20643098742092747 0.06004007257143816 -0.09590647923332926 -0.06943127457946931 0.24665084376124566 0.22153776994376959 0.9519291675139328 -0.11971790509120299 0.1172908713948438 -0.17085473540578008 0.456328056514634 0.2585064958241797
30 -0.20643098742092744 0.06004007257143811 -0.09590647923332922 -0.06943127457946936 0.24665084376124566 0.22153776994376972 0.08260791402259264 -0.3342633012629166 -0.2848394994448077 -0.5521963423019819 -0.33963068487027126 0.5246006494125439
9 1.1433988766296994e-18 -1.9876298990765945e-18 -9.940973649796036e-20 -3.108356958972396e-18 4.4978339182100674e-18 -3.595710771910621e-18 0.002509668833318356 0.0961907241668668 -0.026274175121616193 0.32427262279492536 -0.3352520589967365 0.30677858893020715
27 7.741197358370648e-17 -5.1416066369522527e-17 1.9669967426992428e-17 -9.124223587644083e-17 2.013231286264522e-18 6.511758563407835e-17 0.002509668833318356 0.0961907241668668 -0.026274175121616193 0.32427262279492536 -0.3352520589967365 0.30677858893020715
28 -0.1825390628152952 -0.02980024106633576 0.5139873268244032 0.07325258822343768 0.18993645811131396 0.32248812678295646 0.002509668833318356 0.0961907241668668 -0.026274175121616193 0.32427262279492536 -0.3352520589967365 0.30677858893020715
32 4.5780129667524005e-17 -3.458099947666961e-17 9.492564230694126e-18 -8.813153214768679e-17 -1.7575487678638436e-17 3.8458140912633954e-17 0.02507967742959718 -0.1114778268101874 1.1418026693907617 0.3379180003722724 -0.3031074731800309 1.1906409603662866
16 -2.1663587083124003e-17 1.8881832650403013e-17 -1.0990363077472271e-17 3.0187371449958887e-17 -1.3010688153849456e-17 9.147261505292092e-18 0.09726429601615166 0.9129232886887221 0.1402221180668805 -0.7279147905210215 -0.5962239334613294 0.3864019397948664
33 6.468823836886047e-17 -6.701874946413308e-17 1.71946871448352e-17 -8.415399187648719e-17 2.3795444577124237e-17 -5.5294974743759514e-18 -0.21669340839831697 0.07450037228026424 -0.1795497395002554 -0.16443399420438518 1.3182142970155533 2.6128876749137357
14 -0.20643098742092755 0.06004007257143821 -0.09590647923332928 -0.06943127457946928 0.24665084376124558 0.2215377699437696 0.0 0.0 0.0 0.0 0.0 0.0
15 -0.20643098742092741 0.060040072571438154 -0.09590647923332922 -0.06943127457946946 0.24665084376124552 0.2215377699437696 0.0 0.0 0.0 0.0 0.0 0.0
18 -0.20643098742092741 0.06004007257143813 -0.09590647923332926 -0.06943127457946942 0.24665084376124558 0.22153776994376947 0.0 0.0 0.0 0.0 0.0 0.0
20 -0.20643098742092753 0.06004007257143816 -0.09590647923332928 -0.06943127457946931 0.24665084376124569 0.22153776994376972 0.0 0.0 0.0 0.0 0.0 0.0
22 -0.20643098742092753 0.060040072571438195 -0.09590647923332922 -0.06943127457946932 0.24665084376124555 0.22153776994376959 0.0 0.0 0.0 0.0 0.0 0.0
23 0.31144555014246766 -0.006201113263027121 0.38482527808893197 -0.13775235524124568 0.7686216075080138 0.7874815444081056 0.0 0.0 0.0 0.0 0.0 0.0
25 -0.18253906281529522 -0.02980024106633579 0.5139873268244032 0.07325258822343768 0.18993645811131393 0.32248812678295635 0.0 0.0 0.0 0.0 0.0 0.0
29 -0.20643098742092741 0.060040072571438154 -0.09590647923332926 -0.06943127457946946 0.24665084376124563 0.22153776994376945 0.0 0.0 0.0 0.0 0.0 0.0
24 0.5178765375633947 -0.06624118583446502 0.4807317573222613 -0.06832108066177606 0.5219707637467674 0.5659437744643357 0.0 0.0 0.0 0.0 0.0 0.0
26 -0.18253906281529514 -0.02980024106633579 0.5139873268244032 0.07325258822343764 0.1899364581113138 0.322488126782956 0.0 0.0 0.0 0.0 0.0 0.0
